digraph Tree {
node [shape=box] ;
0 [label="X[0] <= 157.5\ngini = 0.664\nsamples = 306\nvalue = [108, 108, 90]"] ;
1 [label="X[0] <= 127.5\ngini = 0.419\nsamples = 115\nvalue = [83, 4, 28]"] ;
0 -> 1 [labeldistance=2.5, labelangle=45, headlabel="True"] ;
2 [label="X[1] <= 59.0\ngini = 0.068\nsamples = 57\nvalue = [55, 0, 2]"] ;
1 -> 2 ;
3 [label="X[0] <= 117.0\ngini = 0.375\nsamples = 8\nvalue = [6, 0, 2]"] ;
2 -> 3 ;
4 [label="gini = 0.0\nsamples = 6\nvalue = [6, 0, 0]"] ;
3 -> 4 ;
5 [label="gini = 0.0\nsamples = 2\nvalue = [0, 0, 2]"] ;
3 -> 5 ;
6 [label="gini = 0.0\nsamples = 49\nvalue = [49, 0, 0]"] ;
2 -> 6 ;
7 [label="X[1] <= 64.5\ngini = 0.561\nsamples = 58\nvalue = [28, 4, 26]"] ;
1 -> 7 ;
8 [label="X[0] <= 135.5\ngini = 0.466\nsamples = 33\nvalue = [6, 4, 23]"] ;
7 -> 8 ;
9 [label="X[1] <= 61.5\ngini = 0.5\nsamples = 10\nvalue = [5, 0, 5]"] ;
8 -> 9 ;
10 [label="gini = 0.0\nsamples = 5\nvalue = [0, 0, 5]"] ;
9 -> 10 ;
11 [label="gini = 0.0\nsamples = 5\nvalue = [5, 0, 0]"] ;
9 -> 11 ;
12 [label="X[1] <= 59.0\ngini = 0.355\nsamples = 23\nvalue = [1, 4, 18]"] ;
8 -> 12 ;
13 [label="X[0] <= 140.5\ngini = 0.375\nsamples = 4\nvalue = [0, 3, 1]"] ;
12 -> 13 ;
14 [label="gini = 0.0\nsamples = 1\nvalue = [0, 0, 1]"] ;
13 -> 14 ;
15 [label="gini = 0.0\nsamples = 3\nvalue = [0, 3, 0]"] ;
13 -> 15 ;
16 [label="X[1] <= 60.5\ngini = 0.194\nsamples = 19\nvalue = [1, 1, 17]"] ;
12 -> 16 ;
17 [label="X[0] <= 150.5\ngini = 0.375\nsamples = 4\nvalue = [0, 1, 3]"] ;
16 -> 17 ;
18 [label="gini = 0.0\nsamples = 3\nvalue = [0, 0, 3]"] ;
17 -> 18 ;
19 [label="gini = 0.0\nsamples = 1\nvalue = [0, 1, 0]"] ;
17 -> 19 ;
20 [label="X[0] <= 140.5\ngini = 0.124\nsamples = 15\nvalue = [1, 0, 14]"] ;
16 -> 20 ;
21 [label="X[0] <= 138.5\ngini = 0.444\nsamples = 3\nvalue = [1, 0, 2]"] ;
20 -> 21 ;
22 [label="gini = 0.0\nsamples = 2\nvalue = [0, 0, 2]"] ;
21 -> 22 ;
23 [label="gini = 0.0\nsamples = 1\nvalue = [1, 0, 0]"] ;
21 -> 23 ;
24 [label="gini = 0.0\nsamples = 12\nvalue = [0, 0, 12]"] ;
20 -> 24 ;
25 [label="X[0] <= 154.5\ngini = 0.211\nsamples = 25\nvalue = [22, 0, 3]"] ;
7 -> 25 ;
26 [label="X[1] <= 65.5\ngini = 0.091\nsamples = 21\nvalue = [20, 0, 1]"] ;
25 -> 26 ;
27 [label="X[0] <= 147.0\ngini = 0.375\nsamples = 4\nvalue = [3, 0, 1]"] ;
26 -> 27 ;
28 [label="gini = 0.0\nsamples = 3\nvalue = [3, 0, 0]"] ;
27 -> 28 ;
29 [label="gini = 0.0\nsamples = 1\nvalue = [0, 0, 1]"] ;
27 -> 29 ;
30 [label="gini = 0.0\nsamples = 17\nvalue = [17, 0, 0]"] ;
26 -> 30 ;
31 [label="X[1] <= 67.5\ngini = 0.5\nsamples = 4\nvalue = [2, 0, 2]"] ;
25 -> 31 ;
32 [label="gini = 0.0\nsamples = 2\nvalue = [0, 0, 2]"] ;
31 -> 32 ;
33 [label="gini = 0.0\nsamples = 2\nvalue = [2, 0, 0]"] ;
31 -> 33 ;
34 [label="X[0] <= 221.5\ngini = 0.581\nsamples = 191\nvalue = [25, 104, 62]"] ;
0 -> 34 [labeldistance=2.5, labelangle=-45, headlabel="False"] ;
35 [label="X[1] <= 67.5\ngini = 0.629\nsamples = 142\nvalue = [25, 60, 57]"] ;
34 -> 35 ;
36 [label="X[0] <= 179.5\ngini = 0.382\nsamples = 66\nvalue = [0, 49, 17]"] ;
35 -> 36 ;
37 [label="X[1] <= 62.5\ngini = 0.498\nsamples = 34\nvalue = [0, 18, 16]"] ;
36 -> 37 ;
38 [label="X[0] <= 160.0\ngini = 0.117\nsamples = 16\nvalue = [0, 15, 1]"] ;
37 -> 38 ;
39 [label="X[1] <= 61.5\ngini = 0.375\nsamples = 4\nvalue = [0, 3, 1]"] ;
38 -> 39 ;
40 [label="gini = 0.0\nsamples = 3\nvalue = [0, 3, 0]"] ;
39 -> 40 ;
41 [label="gini = 0.0\nsamples = 1\nvalue = [0, 0, 1]"] ;
39 -> 41 ;
42 [label="gini = 0.0\nsamples = 12\nvalue = [0, 12, 0]"] ;
38 -> 42 ;
43 [label="X[1] <= 64.5\ngini = 0.278\nsamples = 18\nvalue = [0, 3, 15]"] ;
37 -> 43 ;
44 [label="X[0] <= 166.0\ngini = 0.49\nsamples = 7\nvalue = [0, 3, 4]"] ;
43 -> 44 ;
45 [label="gini = 0.0\nsamples = 3\nvalue = [0, 0, 3]"] ;
44 -> 45 ;
46 [label="X[1] <= 63.5\ngini = 0.375\nsamples = 4\nvalue = [0, 3, 1]"] ;
44 -> 46 ;
47 [label="gini = 0.0\nsamples = 2\nvalue = [0, 2, 0]"] ;
46 -> 47 ;
48 [label="X[0] <= 171.5\ngini = 0.5\nsamples = 2\nvalue = [0, 1, 1]"] ;
46 -> 48 ;
49 [label="gini = 0.0\nsamples = 1\nvalue = [0, 0, 1]"] ;
48 -> 49 ;
50 [label="gini = 0.0\nsamples = 1\nvalue = [0, 1, 0]"] ;
48 -> 50 ;
51 [label="gini = 0.0\nsamples = 11\nvalue = [0, 0, 11]"] ;
43 -> 51 ;
52 [label="X[1] <= 66.5\ngini = 0.061\nsamples = 32\nvalue = [0, 31, 1]"] ;
36 -> 52 ;
53 [label="gini = 0.0\nsamples = 26\nvalue = [0, 26, 0]"] ;
52 -> 53 ;
54 [label="X[0] <= 188.0\ngini = 0.278\nsamples = 6\nvalue = [0, 5, 1]"] ;
52 -> 54 ;
55 [label="gini = 0.0\nsamples = 1\nvalue = [0, 0, 1]"] ;
54 -> 55 ;
56 [label="gini = 0.0\nsamples = 5\nvalue = [0, 5, 0]"] ;
54 -> 56 ;
57 [label="X[0] <= 180.5\ngini = 0.594\nsamples = 76\nvalue = [25, 11, 40]"] ;
35 -> 57 ;
58 [label="X[1] <= 69.5\ngini = 0.393\nsamples = 26\nvalue = [19, 0, 7]"] ;
57 -> 58 ;
59 [label="X[0] <= 163.0\ngini = 0.408\nsamples = 7\nvalue = [2, 0, 5]"] ;
58 -> 59 ;
60 [label="gini = 0.0\nsamples = 2\nvalue = [2, 0, 0]"] ;
59 -> 60 ;
61 [label="gini = 0.0\nsamples = 5\nvalue = [0, 0, 5]"] ;
59 -> 61 ;
62 [label="X[1] <= 71.5\ngini = 0.188\nsamples = 19\nvalue = [17, 0, 2]"] ;
58 -> 62 ;
63 [label="X[0] <= 173.0\ngini = 0.444\nsamples = 6\nvalue = [4, 0, 2]"] ;
62 -> 63 ;
64 [label="gini = 0.0\nsamples = 4\nvalue = [4, 0, 0]"] ;
63 -> 64 ;
65 [label="gini = 0.0\nsamples = 2\nvalue = [0, 0, 2]"] ;
63 -> 65 ;
66 [label="gini = 0.0\nsamples = 13\nvalue = [13, 0, 0]"] ;
62 -> 66 ;
67 [label="X[1] <= 70.5\ngini = 0.502\nsamples = 50\nvalue = [6, 11, 33]"] ;
57 -> 67 ;
68 [label="X[0] <= 196.5\ngini = 0.5\nsamples = 18\nvalue = [0, 9, 9]"] ;
67 -> 68 ;
69 [label="gini = 0.0\nsamples = 8\nvalue = [0, 0, 8]"] ;
68 -> 69 ;
70 [label="X[0] <= 202.5\ngini = 0.18\nsamples = 10\nvalue = [0, 9, 1]"] ;
68 -> 70 ;
71 [label="X[1] <= 69.0\ngini = 0.5\nsamples = 2\nvalue = [0, 1, 1]"] ;
70 -> 71 ;
72 [label="gini = 0.0\nsamples = 1\nvalue = [0, 1, 0]"] ;
71 -> 72 ;
73 [label="gini = 0.0\nsamples = 1\nvalue = [0, 0, 1]"] ;
71 -> 73 ;
74 [label="gini = 0.0\nsamples = 8\nvalue = [0, 8, 0]"] ;
70 -> 74 ;
75 [label="X[0] <= 192.5\ngini = 0.398\nsamples = 32\nvalue = [6, 2, 24]"] ;
67 -> 75 ;
76 [label="X[1] <= 73.5\ngini = 0.494\nsamples = 9\nvalue = [5, 0, 4]"] ;
75 -> 76 ;
77 [label="X[0] <= 183.0\ngini = 0.32\nsamples = 5\nvalue = [1, 0, 4]"] ;
76 -> 77 ;
78 [label="gini = 0.0\nsamples = 1\nvalue = [1, 0, 0]"] ;
77 -> 78 ;
79 [label="gini = 0.0\nsamples = 4\nvalue = [0, 0, 4]"] ;
77 -> 79 ;
80 [label="gini = 0.0\nsamples = 4\nvalue = [4, 0, 0]"] ;
76 -> 80 ;
81 [label="X[0] <= 214.0\ngini = 0.234\nsamples = 23\nvalue = [1, 2, 20]"] ;
75 -> 81 ;
82 [label="X[1] <= 75.5\ngini = 0.111\nsamples = 17\nvalue = [1, 0, 16]"] ;
81 -> 82 ;
83 [label="gini = 0.0\nsamples = 14\nvalue = [0, 0, 14]"] ;
82 -> 83 ;
84 [label="X[0] <= 201.0\ngini = 0.444\nsamples = 3\nvalue = [1, 0, 2]"] ;
82 -> 84 ;
85 [label="gini = 0.0\nsamples = 1\nvalue = [1, 0, 0]"] ;
84 -> 85 ;
86 [label="gini = 0.0\nsamples = 2\nvalue = [0, 0, 2]"] ;
84 -> 86 ;
87 [label="X[1] <= 72.5\ngini = 0.444\nsamples = 6\nvalue = [0, 2, 4]"] ;
81 -> 87 ;
88 [label="gini = 0.0\nsamples = 2\nvalue = [0, 2, 0]"] ;
87 -> 88 ;
89 [label="gini = 0.0\nsamples = 4\nvalue = [0, 0, 4]"] ;
87 -> 89 ;
90 [label="X[0] <= 239.0\ngini = 0.183\nsamples = 49\nvalue = [0, 44, 5]"] ;
34 -> 90 ;
91 [label="X[1] <= 73.5\ngini = 0.351\nsamples = 22\nvalue = [0, 17, 5]"] ;
90 -> 91 ;
92 [label="gini = 0.0\nsamples = 16\nvalue = [0, 16, 0]"] ;
91 -> 92 ;
93 [label="X[1] <= 74.5\ngini = 0.278\nsamples = 6\nvalue = [0, 1, 5]"] ;
91 -> 93 ;
94 [label="X[0] <= 229.0\ngini = 0.5\nsamples = 2\nvalue = [0, 1, 1]"] ;
93 -> 94 ;
95 [label="gini = 0.0\nsamples = 1\nvalue = [0, 0, 1]"] ;
94 -> 95 ;
96 [label="gini = 0.0\nsamples = 1\nvalue = [0, 1, 0]"] ;
94 -> 96 ;
97 [label="gini = 0.0\nsamples = 4\nvalue = [0, 0, 4]"] ;
93 -> 97 ;
98 [label="gini = 0.0\nsamples = 27\nvalue = [0, 27, 0]"] ;
90 -> 98 ;
}
